digraph Tree {
node [shape=box, style="filled, rounded", color="black", fontname=helvetica] ;
edge [fontname=helvetica] ;
0 [label="X1 <= 1.422\nmse = 8.722\nsamples = 8000\nvalue = 3.478", fillcolor="#f6d2b8"] ;
1 [label="X2 <= 0.024\nmse = 4.663\nsamples = 5914\nvalue = 2.338", fillcolor="#f9e0ce"] ;
0 -> 1 [labeldistance=2.5, labelangle=45, headlabel="True"] ;
2 [label="X2 <= -1.636\nmse = 2.351\nsamples = 2976\nvalue = 0.811", fillcolor="#fcf2ea"] ;
1 -> 2 ;
3 [label="X1 <= 0.359\nmse = 1.761\nsamples = 1383\nvalue = 0.015", fillcolor="#fefbf9"] ;
2 -> 3 ;
4 [label="mse = 1.391\nsamples = 1033\nvalue = -0.317", fillcolor="#ffffff"] ;
3 -> 4 ;
5 [label="mse = 1.566\nsamples = 350\nvalue = 0.996", fillcolor="#fcefe7"] ;
3 -> 5 ;
6 [label="X1 <= 0.546\nmse = 1.837\nsamples = 1593\nvalue = 1.501", fillcolor="#fbeadd"] ;
2 -> 6 ;
7 [label="mse = 1.503\nsamples = 1273\nvalue = 1.198", fillcolor="#fbede3"] ;
6 -> 7 ;
8 [label="mse = 1.352\nsamples = 320\nvalue = 2.705", fillcolor="#f8dbc7"] ;
6 -> 8 ;
9 [label="X2 <= 1.482\nmse = 2.252\nsamples = 2938\nvalue = 3.884", fillcolor="#f5cdb1"] ;
1 -> 9 ;
10 [label="X1 <= 0.616\nmse = 1.74\nsamples = 1440\nvalue = 3.134", fillcolor="#f7d6bf"] ;
9 -> 10 ;
11 [label="mse = 1.399\nsamples = 1188\nvalue = 2.866", fillcolor="#f7d9c4"] ;
10 -> 11 ;
12 [label="mse = 1.419\nsamples = 252\nvalue = 4.395", fillcolor="#f4c7a7"] ;
10 -> 12 ;
13 [label="X1 <= 0.742\nmse = 1.682\nsamples = 1498\nvalue = 4.606", fillcolor="#f3c5a4"] ;
9 -> 13 ;
14 [label="mse = 1.421\nsamples = 1288\nvalue = 4.389", fillcolor="#f4c7a8"] ;
13 -> 14 ;
15 [label="mse = 1.235\nsamples = 210\nvalue = 5.934", fillcolor="#f0b58b"] ;
13 -> 15 ;
16 [label="X2 <= -0.165\nmse = 6.081\nsamples = 2086\nvalue = 6.712", fillcolor="#eeac7c"] ;
0 -> 16 [labeldistance=2.5, labelangle=-45, headlabel="False"] ;
17 [label="X1 <= 2.285\nmse = 3.717\nsamples = 992\nvalue = 5.12", fillcolor="#f2bf9a"] ;
16 -> 17 ;
18 [label="X2 <= -2.056\nmse = 1.987\nsamples = 549\nvalue = 3.99", fillcolor="#f4ccaf"] ;
17 -> 18 ;
19 [label="mse = 1.457\nsamples = 198\nvalue = 3.075", fillcolor="#f7d7c0"] ;
18 -> 19 ;
20 [label="mse = 1.547\nsamples = 351\nvalue = 4.506", fillcolor="#f3c6a5"] ;
18 -> 20 ;
21 [label="X2 <= -1.116\nmse = 2.316\nsamples = 443\nvalue = 6.52", fillcolor="#eeae80"] ;
17 -> 21 ;
22 [label="mse = 1.844\nsamples = 297\nvalue = 5.993", fillcolor="#f0b48a"] ;
21 -> 22 ;
23 [label="mse = 1.558\nsamples = 146\nvalue = 7.594", fillcolor="#eca16c"] ;
21 -> 23 ;
24 [label="X1 <= 2.286\nmse = 3.841\nsamples = 1094\nvalue = 8.156", fillcolor="#ea9b62"] ;
16 -> 24 ;
25 [label="X2 <= 1.325\nmse = 2.077\nsamples = 602\nvalue = 6.998", fillcolor="#eda977"] ;
24 -> 25 ;
26 [label="mse = 1.516\nsamples = 283\nvalue = 6.224", fillcolor="#efb285"] ;
25 -> 26 ;
27 [label="mse = 1.572\nsamples = 319\nvalue = 7.684", fillcolor="#eba06a"] ;
25 -> 27 ;
28 [label="X2 <= 1.339\nmse = 2.348\nsamples = 492\nvalue = 9.573", fillcolor="#e78a47"] ;
24 -> 28 ;
29 [label="mse = 1.608\nsamples = 231\nvalue = 8.706", fillcolor="#e99457"] ;
28 -> 29 ;
30 [label="mse = 1.748\nsamples = 261\nvalue = 10.341", fillcolor="#e58139"] ;
28 -> 30 ;
}