digraph Tree {
node [shape=box, style="filled, rounded", color="black", fontname=helvetica] ;
edge [fontname=helvetica] ;
0 [label="X1 <= 1.638\nmse = 8.895\nsamples = 8000\nvalue = 3.474", fillcolor="#f7d6bf"] ;
1 [label="X2 <= 0.264\nmse = 4.896\nsamples = 6155\nvalue = 2.401", fillcolor="#fae8db"] ;
0 -> 1 [labeldistance=2.5, labelangle=45, headlabel="True"] ;
2 [label="mse = 2.623\nsamples = 3403\nvalue = 1.022", fillcolor="#ffffff"] ;
1 -> 2 ;
3 [label="mse = 2.442\nsamples = 2752\nvalue = 4.107", fillcolor="#f4ccae"] ;
1 -> 3 ;
4 [label="X2 <= 0.114\nmse = 5.602\nsamples = 1845\nvalue = 7.051", fillcolor="#ea9a61"] ;
0 -> 4 [labeldistance=2.5, labelangle=-45, headlabel="False"] ;
5 [label="mse = 3.694\nsamples = 961\nvalue = 5.65", fillcolor="#efb286"] ;
4 -> 5 ;
6 [label="mse = 3.222\nsamples = 884\nvalue = 8.574", fillcolor="#e58139"] ;
4 -> 6 ;
}