digraph Tree {
node [shape=box, style="filled, rounded", color="black", fontname=helvetica] ;
edge [fontname=helvetica] ;
0 [label="X1 <= 1.491\nmse = 8.848\nsamples = 8000\nvalue = 3.484", fillcolor="#f6d4bb"] ;
1 [label="X2 <= -0.095\nmse = 4.637\nsamples = 6025\nvalue = 2.359", fillcolor="#f9e1cf"] ;
0 -> 1 [labeldistance=2.5, labelangle=45, headlabel="True"] ;
2 [label="X2 <= -1.617\nmse = 2.401\nsamples = 2926\nvalue = 0.817", fillcolor="#fcf2eb"] ;
1 -> 2 ;
3 [label="X1 <= 0.52\nmse = 1.754\nsamples = 1387\nvalue = 0.002", fillcolor="#fefcfa"] ;
2 -> 3 ;
4 [label="mse = 1.445\nsamples = 1096\nvalue = -0.301", fillcolor="#ffffff"] ;
3 -> 4 ;
5 [label="mse = 1.266\nsamples = 291\nvalue = 1.144", fillcolor="#fceee5"] ;
3 -> 5 ;
6 [label="X1 <= 0.635\nmse = 1.846\nsamples = 1539\nvalue = 1.551", fillcolor="#fbeade"] ;
2 -> 6 ;
7 [label="mse = 1.325\nsamples = 1221\nvalue = 1.192", fillcolor="#fbeee4"] ;
6 -> 7 ;
8 [label="mse = 1.45\nsamples = 318\nvalue = 2.931", fillcolor="#f7dac5"] ;
6 -> 8 ;
9 [label="X2 <= 1.33\nmse = 2.379\nsamples = 3099\nvalue = 3.816", fillcolor="#f5d0b5"] ;
1 -> 9 ;
10 [label="X1 <= 0.496\nmse = 1.765\nsamples = 1435\nvalue = 3.01", fillcolor="#f7d9c3"] ;
9 -> 10 ;
11 [label="mse = 1.378\nsamples = 1108\nvalue = 2.662", fillcolor="#f8ddca"] ;
10 -> 11 ;
12 [label="mse = 1.274\nsamples = 327\nvalue = 4.19", fillcolor="#f4ccae"] ;
10 -> 12 ;
13 [label="X1 <= 0.434\nmse = 1.865\nsamples = 1664\nvalue = 4.511", fillcolor="#f4c8a8"] ;
9 -> 13 ;
14 [label="mse = 1.496\nsamples = 1265\nvalue = 4.154", fillcolor="#f4ccaf"] ;
13 -> 14 ;
15 [label="mse = 1.347\nsamples = 399\nvalue = 5.643", fillcolor="#f1bb94"] ;
13 -> 15 ;
16 [label="X2 <= 0.443\nmse = 6.064\nsamples = 1975\nvalue = 6.915", fillcolor="#eeac7d"] ;
0 -> 16 [labeldistance=2.5, labelangle=-45, headlabel="False"] ;
17 [label="X1 <= 2.276\nmse = 3.99\nsamples = 1131\nvalue = 5.58", fillcolor="#f1bc95"] ;
16 -> 17 ;
18 [label="X2 <= -1.475\nmse = 2.313\nsamples = 575\nvalue = 4.351", fillcolor="#f4caab"] ;
17 -> 18 ;
19 [label="mse = 1.631\nsamples = 238\nvalue = 3.319", fillcolor="#f6d6be"] ;
18 -> 19 ;
20 [label="mse = 1.51\nsamples = 337\nvalue = 5.08", fillcolor="#f2c19e"] ;
18 -> 20 ;
21 [label="X2 <= -1.215\nmse = 2.547\nsamples = 556\nvalue = 6.85", fillcolor="#eead7e"] ;
17 -> 21 ;
22 [label="mse = 1.732\nsamples = 269\nvalue = 5.91", fillcolor="#f0b88f"] ;
21 -> 22 ;
23 [label="mse = 1.706\nsamples = 287\nvalue = 7.732", fillcolor="#eca36f"] ;
21 -> 23 ;
24 [label="X1 <= 2.312\nmse = 3.249\nsamples = 844\nvalue = 8.705", fillcolor="#ea985d"] ;
16 -> 24 ;
25 [label="X2 <= 1.911\nmse = 1.723\nsamples = 459\nvalue = 7.604", fillcolor="#eca571"] ;
24 -> 25 ;
26 [label="mse = 1.429\nsamples = 268\nvalue = 7.119", fillcolor="#edaa7a"] ;
25 -> 26 ;
27 [label="mse = 1.343\nsamples = 191\nvalue = 8.284", fillcolor="#eb9d65"] ;
25 -> 27 ;
28 [label="X2 <= 1.815\nmse = 1.896\nsamples = 385\nvalue = 10.019", fillcolor="#e78945"] ;
24 -> 28 ;
29 [label="mse = 1.32\nsamples = 205\nvalue = 9.409", fillcolor="#e89050"] ;
28 -> 29 ;
30 [label="mse = 1.645\nsamples = 180\nvalue = 10.714", fillcolor="#e58139"] ;
28 -> 30 ;
}