digraph Tree {
node [shape=box, style="filled, rounded", color="black", fontname=helvetica] ;
edge [fontname=helvetica] ;
0 [label="X1 <= 1.456\nmse = 8.634\nsamples = 8000\nvalue = 3.504", fillcolor="#f6d4bb"] ;
1 [label="X2 <= 0.116\nmse = 4.591\nsamples = 5948\nvalue = 2.377", fillcolor="#f9e1d0"] ;
0 -> 1 [labeldistance=2.5, labelangle=45, headlabel="True"] ;
2 [label="X2 <= -1.41\nmse = 2.368\nsamples = 3041\nvalue = 0.909", fillcolor="#fcf2eb"] ;
1 -> 2 ;
3 [label="X1 <= 0.591\nmse = 1.749\nsamples = 1521\nvalue = 0.122", fillcolor="#fefcfa"] ;
2 -> 3 ;
4 [label="mse = 1.425\nsamples = 1239\nvalue = -0.153", fillcolor="#ffffff"] ;
3 -> 4 ;
5 [label="mse = 1.378\nsamples = 282\nvalue = 1.33", fillcolor="#fbede3"] ;
3 -> 5 ;
6 [label="X1 <= 0.659\nmse = 1.751\nsamples = 1520\nvalue = 1.695", fillcolor="#fae9dd"] ;
2 -> 6 ;
7 [label="mse = 1.448\nsamples = 1248\nvalue = 1.424", fillcolor="#fbece2"] ;
6 -> 7 ;
8 [label="mse = 1.249\nsamples = 272\nvalue = 2.941", fillcolor="#f7dac5"] ;
6 -> 8 ;
9 [label="X2 <= 1.411\nmse = 2.298\nsamples = 2907\nvalue = 3.914", fillcolor="#f5cfb3"] ;
1 -> 9 ;
10 [label="X1 <= 0.541\nmse = 1.729\nsamples = 1281\nvalue = 3.103", fillcolor="#f7d8c2"] ;
9 -> 10 ;
11 [label="mse = 1.359\nsamples = 1045\nvalue = 2.818", fillcolor="#f8dcc8"] ;
10 -> 11 ;
12 [label="mse = 1.417\nsamples = 236\nvalue = 4.364", fillcolor="#f4c9ab"] ;
10 -> 12 ;
13 [label="X1 <= 0.657\nmse = 1.821\nsamples = 1626\nvalue = 4.553", fillcolor="#f3c7a7"] ;
9 -> 13 ;
14 [label="mse = 1.503\nsamples = 1324\nvalue = 4.268", fillcolor="#f4cbad"] ;
13 -> 14 ;
15 [label="mse = 1.298\nsamples = 302\nvalue = 5.802", fillcolor="#f0b890"] ;
13 -> 15 ;
16 [label="X2 <= 0.103\nmse = 6.005\nsamples = 2052\nvalue = 6.77", fillcolor="#eead7e"] ;
0 -> 16 [labeldistance=2.5, labelangle=-45, headlabel="False"] ;
17 [label="X1 <= 2.44\nmse = 3.912\nsamples = 1063\nvalue = 5.313", fillcolor="#f2be99"] ;
16 -> 17 ;
18 [label="X2 <= -1.549\nmse = 2.365\nsamples = 701\nvalue = 4.41", fillcolor="#f4c9aa"] ;
17 -> 18 ;
19 [label="mse = 1.816\nsamples = 342\nvalue = 3.571", fillcolor="#f6d3ba"] ;
18 -> 19 ;
20 [label="mse = 1.577\nsamples = 359\nvalue = 5.209", fillcolor="#f2bf9b"] ;
18 -> 20 ;
21 [label="X2 <= -1.593\nmse = 2.272\nsamples = 362\nvalue = 7.061", fillcolor="#edaa79"] ;
17 -> 21 ;
22 [label="mse = 1.429\nsamples = 156\nvalue = 6.085", fillcolor="#f0b58b"] ;
21 -> 22 ;
23 [label="mse = 1.641\nsamples = 206\nvalue = 7.801", fillcolor="#eca16b"] ;
21 -> 23 ;
24 [label="X1 <= 2.254\nmse = 3.517\nsamples = 989\nvalue = 8.337", fillcolor="#ea9a61"] ;
16 -> 24 ;
25 [label="X2 <= 1.566\nmse = 1.836\nsamples = 529\nvalue = 7.203", fillcolor="#eda876"] ;
24 -> 25 ;
26 [label="mse = 1.479\nsamples = 281\nvalue = 6.579", fillcolor="#efaf82"] ;
25 -> 26 ;
27 [label="mse = 1.3\nsamples = 248\nvalue = 7.911", fillcolor="#eb9f69"] ;
25 -> 27 ;
28 [label="X2 <= 1.742\nmse = 2.27\nsamples = 460\nvalue = 9.641", fillcolor="#e78b49"] ;
24 -> 28 ;
29 [label="mse = 1.902\nsamples = 250\nvalue = 8.936", fillcolor="#e99356"] ;
28 -> 29 ;
30 [label="mse = 1.412\nsamples = 210\nvalue = 10.481", fillcolor="#e58139"] ;
28 -> 30 ;
}